{"learner":{"attributes":{"scikit_learn":"{\"_estimator_type\": \"regressor\"}"},"feature_names":["length","entropy","upper","lower","digits","special","repeats","sequential","proximity","is_leaked"],"feature_types":["int","float","int","int","int","int","int","int","int","int"],"gradient_booster":{"model":{"gbtree_model_param":{"num_parallel_tree":"1","num_trees":"100"},"iteration_indptr":[0,1,2,3,4,5,6,7,8,9,10,11,12,13,14,15,16,17,18,19,20,21,22,23,24,25,26,27,28,29,30,31,32,33,34,35,36,37,38,39,40,41,42,43,44,45,46,47,48,49,50,51,52,53,54,55,56,57,58,59,60,61,62,63,64,65,66,67,68,69,70,71,72,73,74,75,76,77,78,79,80,81,82,83,84,85,86,87,88,89,90,91,92,93,94,95,96,97,98,99,100],"tree_info":[0,0,0,0,0,0,0,0,0,0,0,0,0,0,0,0,0,0,0,0,0,0,0,0,0,0,0,0,0,0,0,0,0,0,0,0,0,0,0,0,0,0,0,0,0,0,0,0,0,0,0,0,0,0,0,0,0,0,0,0,0,0,0,0,0,0,0,0,0,0,0,0,0,0,0,0,0,0,0,0,0,0,0,0,0,0,0,0,0,0,0,0,0,0,0,0,0,0,0,0],"trees":[{"base_weights":[-9.536743E-7,-9.235715E0,7.3885713E0],"categories":[],"categories_nodes":[],"categories_segments":[],"categories_sizes":[],"default_left":[0,0,0],"id":0,"left_children":[1,-1,-1],"loss_changes":[6.8238735E3,0E0,0E0],"parents":[2147483647,0,0],"right_children":[2,-1,-1],"split_conditions":[1E1,-9.235715E0,7.3885713E0],"split_indices":[0,0,0],"split_type":[0,0,0],"sum_hessian":[7E0,3E0,4E0],"tree_param":{"num_deleted":"0","num_feature":"10","num_nodes":"3","size_leaf_vector":"1"}},{"base_weights":[-2.3089457E-1,-7.157679E0,5.615314E0],"categories":[],"categories_nodes":[],"categories_segments":[],"categories_sizes":[],"default_left":[0,0,0],"id":1,"left_children":[1,-1,-1],"loss_changes":[4.0283315E3,0E0,0E0],"parents":[2147483647,0,0],"right_children":[2,-1,-1],"split_conditions":[1E1,-7.157679E0,5.615314E0],"split_indices":[0,0,0],"split_type":[0,0,0],"sum_hessian":[7E0,3E0,4E0],"tree_param":{"num_deleted":"0","num_feature":"10","num_nodes":"3","size_leaf_vector":"1"}},{"base_weights":[-3.5442162E-1,-5.547201E0,4.2676387E0],"categories":[],"categories_nodes":[],"categories_segments":[],"categories_sizes":[],"default_left":[0,0,0],"id":2,"left_children":[1,-1,-1],"loss_changes":[2.378433E3,0E0,0E0],"parents":[2147483647,0,0],"right_children":[2,-1,-1],"split_conditions":[1E1,-5.547201E0,4.2676387E0],"split_indices":[0,0,0],"split_type":[0,0,0],"sum_hessian":[7E0,3E0,4E0],"tree_param":{"num_deleted":"0","num_feature":"10","num_nodes":"3","size_leaf_vector":"1"}},{"base_weights":[-4.0803885E-1,-4.299081E0,3.243406E0],"categories":[],"categories_nodes":[],"categories_segments":[],"categories_sizes":[],"default_left":[0,0,0],"id":3,"left_children":[1,-1,-1],"loss_changes":[1.4045211E3,0E0,0E0],"parents":[2147483647,0,0],"right_children":[2,-1,-1],"split_conditions":[1E1,-4.299081E0,3.243406E0],"split_indices":[0,0,0],"split_type":[0,0,0],"sum_hessian":[7E0,3E0,4E0],"tree_param":{"num_deleted":"0","num_feature":"10","num_nodes":"3","size_leaf_vector":"1"}},{"base_weights":[-4.1758728E-1,-3.3317873E0,2.464988E0],"categories":[],"categories_nodes":[],"categories_segments":[],"categories_sizes":[],"default_left":[0,0,0],"id":4,"left_children":[1,-1,-1],"loss_changes":[8.295388E2,0E0,0E0],"parents":[2147483647,0,0],"right_children":[2,-1,-1],"split_conditions":[1E1,-3.3317873E0,2.464988E0],"split_indices":[0,0,0],"split_type":[0,0,0],"sum_hessian":[7E0,3E0,4E0],"tree_param":{"num_deleted":"0","num_feature":"10","num_nodes":"3","size_leaf_vector":"1"}},{"base_weights":[-4.0066147E-1,-2.5821352E0,1.8733906E0],"categories":[],"categories_nodes":[],"categories_segments":[],"categories_sizes":[],"default_left":[0,0,0],"id":5,"left_children":[1,-1,-1],"loss_changes":[4.9002292E2,0E0,0E0],"parents":[2147483647,0,0],"right_children":[2,-1,-1],"split_conditions":[1E1,-2.5821352E0,1.8733906E0],"split_indices":[0,0,0],"split_type":[0,0,0],"sum_hessian":[7E0,3E0,4E0],"tree_param":{"num_deleted":"0","num_feature":"10","num_nodes":"3","size_leaf_vector":"1"}},{"base_weights":[-3.6905622E-1,-6.670516E0,1.423777E0,-5.341032E-1,-2.3121376E0],"categories":[],"categories_nodes":[],"categories_segments":[],"categories_sizes":[],"default_left":[0,0,0,0,0],"id":6,"left_children":[1,3,-1,-1,-1],"loss_changes":[2.8951242E2,6.5554504E0,0E0,0E0,0E0],"parents":[2147483647,0,0,1,1],"right_children":[2,4,-1,-1,-1],"split_conditions":[1E1,3E0,1.423777E0,-5.341032E-1,-2.3121376E0],"split_indices":[0,3,0,0,0],"split_type":[0,0,0,0,0],"sum_hessian":[7E0,3E0,4E0,1E0,2E0],"tree_param":{"num_deleted":"0","num_feature":"10","num_nodes":"5","size_leaf_vector":"1"}},{"base_weights":[-4.3614626E-1,-5.3809214E0,3.606903E0,-4.5398772E-1,-1.8497102E0,1.2019415E0,3.0129433E-1],"categories":[],"categories_nodes":[],"categories_segments":[],"categories_sizes":[],"default_left":[0,0,0,0,0,0,0],"id":7,"left_children":[1,3,5,-1,-1,-1,-1],"loss_changes":[1.7934422E2,2.8104248E0,1.1758041E0,0E0,0E0,0E0,0E0],"parents":[2147483647,0,0,1,1,2,2],"right_children":[2,4,6,-1,-1,-1,-1],"split_conditions":[1E1,3E0,4E0,-4.5398772E-1,-1.8497102E0,1.2019415E0,3.0129433E-1],"split_indices":[0,3,4,0,0,0,0],"split_type":[0,0,0,0,0,0,0],"sum_hessian":[7E0,3E0,4E0,1E0,2E0,3E0,1E0],"tree_param":{"num_deleted":"0","num_feature":"10","num_nodes":"7","size_leaf_vector":"1"}},{"base_weights":[-4.0536022E-1,-4.3425694E0,2.825479E0,-3.8588965E-1,-1.479768E0,9.315045E-1,2.5610048E-1],"categories":[],"categories_nodes":[],"categories_segments":[],"categories_sizes":[],"default_left":[0,0,0,0,0,0,0],"id":8,"left_children":[1,3,5,-1,-1,-1,-1],"loss_changes":[1.1403376E2,8.679352E-1,1.0530472E-1,0E0,0E0,0E0,0E0],"parents":[2147483647,0,0,1,1,2,2],"right_children":[2,4,6,-1,-1,-1,-1],"split_conditions":[1E1,3E0,4E0,-3.8588965E-1,-1.479768E0,9.315045E-1,2.5610048E-1],"split_indices":[0,3,4,0,0,0,0],"split_type":[0,0,0,0,0,0,0],"sum_hessian":[7E0,3E0,4E0,1E0,2E0,3E0,1E0],"tree_param":{"num_deleted":"0","num_feature":"10","num_nodes":"7","size_leaf_vector":"1"}},{"base_weights":[-3.6850882E-1,-1.051864E0,6.646069E-1],"categories":[],"categories_nodes":[],"categories_segments":[],"categories_sizes":[],"default_left":[0,0,0],"id":9,"left_children":[1,-1,-1],"loss_changes":[7.2626755E1,0E0,0E0],"parents":[2147483647,0,0],"right_children":[2,-1,-1],"split_conditions":[1E1,-1.051864E0,6.646069E-1],"split_indices":[0,0,0],"split_type":[0,0,0],"sum_hessian":[7E0,3E0,4E0],"tree_param":{"num_deleted":"0","num_feature":"10","num_nodes":"3","size_leaf_vector":"1"}},{"base_weights":[-3.063619E-1,-2.7173152E0,1.6836731E0,-1.7022657E-1,-9.734417E-1,1.9972079E-1,6.421158E-1],"categories":[],"categories_nodes":[],"categories_segments":[],"categories_sizes":[],"default_left":[0,0,0,0,0,0,0],"id":10,"left_children":[1,3,5,-1,-1,-1,-1],"loss_changes":[4.2958122E1,2.6950169E0,8.995943E-1,0E0,0E0,0E0,0E0],"parents":[2147483647,0,0,1,1,2,2],"right_children":[2,4,6,-1,-1,-1,-1],"split_conditions":[1E1,3E0,2E0,-1.7022657E-1,-9.734417E-1,1.9972079E-1,6.421158E-1],"split_indices":[0,3,2,0,0,0,0],"split_type":[0,0,0,0,0,0,0],"sum_hessian":[7E0,3E0,4E0,1E0,2E0,2E0,2E0],"tree_param":{"num_deleted":"0","num_feature":"10","num_nodes":"7","size_leaf_vector":"1"}},{"base_weights":[-2.5218177E-1,-2.1880374E0,1.3469391E0,-1.4469253E-1,-7.7875334E-1,1.5977632E-1,5.136933E-1],"categories":[],"categories_nodes":[],"categories_segments":[],"categories_sizes":[],"default_left":[0,0,0,0,0,0,0],"id":11,"left_children":[1,3,5,-1,-1,-1,-1],"loss_changes":[2.771249E1,1.5304356E0,5.7575035E-1,0E0,0E0,0E0,0E0],"parents":[2147483647,0,0,1,1,2,2],"right_children":[2,4,6,-1,-1,-1,-1],"split_conditions":[1E1,3E0,2E0,-1.4469253E-1,-7.7875334E-1,1.5977632E-1,5.136933E-1],"split_indices":[0,3,2,0,0,0,0],"split_type":[0,0,0,0,0,0,0],"sum_hessian":[7E0,3E0,4E0,1E0,2E0,2E0,2E0],"tree_param":{"num_deleted":"0","num_feature":"10","num_nodes":"7","size_leaf_vector":"1"}},{"base_weights":[-2.0777428E-1,-1.7624876E0,1.0775512E0,-1.22988656E-1,-6.2300265E-1,3.7204686E-1,6.406975E-2],"categories":[],"categories_nodes":[],"categories_segments":[],"categories_sizes":[],"default_left":[0,0,0,0,0,0,0],"id":12,"left_children":[1,3,5,-1,-1,-1,-1],"loss_changes":[1.7885674E1,8.484297E-1,4.3758678E-1,0E0,0E0,0E0,0E0],"parents":[2147483647,0,0,1,1,2,2],"right_children":[2,4,6,-1,-1,-1,-1],"split_conditions":[1E1,3E0,4E0,-1.22988656E-1,-6.2300265E-1,3.7204686E-1,6.406975E-2],"split_indices":[0,3,4,0,0,0,0],"split_type":[0,0,0,0,0,0,0],"sum_hessian":[7E0,3E0,4E0,1E0,2E0,3E0,1E0],"tree_param":{"num_deleted":"0","num_feature":"10","num_nodes":"7","size_leaf_vector":"1"}},{"base_weights":[-1.8417668E-1,-1.420239E0,8.415085E-1,-1.04540356E-1,-4.9840206E-1,1.1436138E-1,4.0240863E-1],"categories":[],"categories_nodes":[],"categories_segments":[],"categories_sizes":[],"default_left":[0,0,0,0,0,0,0],"id":13,"left_children":[1,3,5,-1,-1,-1,-1],"loss_changes":[1.1337629E1,4.546976E-1,6.3908935E-1,0E0,0E0,0E0,0E0],"parents":[2147483647,0,0,1,1,2,2],"right_children":[2,4,6,-1,-1,-1,-1],"split_conditions":[1E1,3E0,1.3E1,-1.04540356E-1,-4.9840206E-1,1.1436138E-1,4.0240863E-1],"split_indices":[0,3,0,0,0,0,0],"split_type":[0,0,0,0,0,0,0],"sum_hessian":[7E0,3E0,4E0,1E0,2E0,3E0,1E0],"tree_param":{"num_deleted":"0","num_feature":"10","num_nodes":"7","size_leaf_vector":"1"}},{"base_weights":[-1.3969696E-1,-1.144903E0,6.9240725E-1,-8.885923E-2,-3.9872172E-1,8.862934E-2,3.4204674E-1],"categories":[],"categories_nodes":[],"categories_segments":[],"categories_sizes":[],"default_left":[0,0,0,0,0,0,0],"id":14,"left_children":[1,3,5,-1,-1,-1,-1],"loss_changes":[7.4842277E0,2.3155499E-1,5.518899E-1,0E0,0E0,0E0,0E0],"parents":[2147483647,0,0,1,1,2,2],"right_children":[2,4,6,-1,-1,-1,-1],"split_conditions":[1E1,3E0,1.3E1,-8.885923E-2,-3.9872172E-1,8.862934E-2,3.4204674E-1],"split_indices":[0,3,0,0,0,0,0],"split_type":[0,0,0,0,0,0,0],"sum_hessian":[7E0,3E0,4E0,1E0,2E0,3E0,1E0],"tree_param":{"num_deleted":"0","num_feature":"10","num_nodes":"7","size_leaf_vector":"1"}},{"base_weights":[-1.0490167E-1,-9.233272E-1,5.708191E-1,-1.0984221E-1,-3.8923302E-1,6.868744E-2,2.9073945E-1],"categories":[],"categories_nodes":[],"categories_segments":[],"categories_sizes":[],"default_left":[0,0,0,0,0,0,0],"id":15,"left_children":[1,3,5,-1,-1,-1,-1],"loss_changes":[4.9512696E0,3.5876322E-1,4.589467E-1,0E0,0E0,0E0,0E0],"parents":[2147483647,0,0,1,1,2,2],"right_children":[2,4,6,-1,-1,-1,-1],"split_conditions":[1E1,8E0,1.3E1,-1.0984221E-1,-3.8923302E-1,6.868744E-2,2.9073945E-1],"split_indices":[0,0,0,0,0,0,0],"split_type":[0,0,0,0,0,0,0],"sum_hessian":[7E0,3E0,4E0,2E0,1E0,3E0,1E0],"tree_param":{"num_deleted":"0","num_feature":"10","num_nodes":"7","size_leaf_vector":"1"}},{"base_weights":[-9.088743E-2,-7.710979E-1,4.7145844E-1,-8.787375E-2,-3.3084813E-1,1.7744255E-1,2.4712831E-1,6.1839297E-2,1.3706589E-2],"categories":[],"categories_nodes":[],"categories_segments":[],"categories_sizes":[],"default_left":[0,0,0,0,0,0,0,0,0],"id":16,"left_children":[1,3,5,-1,-1,7,-1,-1,-1],"loss_changes":[3.423649E0,3.1148028E-1,3.717425E-1,0E0,0E0,5.701408E-3,0E0,0E0,0E0],"parents":[2147483647,0,0,1,1,2,2,5,5],"right_children":[2,4,6,-1,-1,8,-1,-1,-1],"split_conditions":[1E1,8E0,1.3E1,-8.787375E-2,-3.3084813E-1,4E0,2.4712831E-1,6.1839297E-2,1.3706589E-2],"split_indices":[0,0,0,0,0,4,0,0,0],"split_type":[0,0,0,0,0,0,0,0,0],"sum_hessian":[7E0,3E0,4E0,2E0,1E0,3E0,1E0,2E0,1E0],"tree_param":{"num_deleted":"0","num_feature":"10","num_nodes":"9","size_leaf_vector":"1"}},{"base_weights":[-7.562727E-2,-6.444491E-1,3.9455566E-1,-7.029906E-2,-2.812209E-1,1.4309692E-1,2.100586E-1,4.9472045E-2,1.1650085E-2],"categories":[],"categories_nodes":[],"categories_segments":[],"categories_sizes":[],"default_left":[0,0,0,0,0,0,0,0,0],"id":17,"left_children":[1,3,5,-1,-1,7,-1,-1,-1],"loss_changes":[2.3938737E0,2.6092184E-1,2.84083E-1,0E0,0E0,2.6919618E-3,0E0,0E0,0E0],"parents":[2147483647,0,0,1,1,2,2,5,5],"right_children":[2,4,6,-1,-1,8,-1,-1,-1],"split_conditions":[1E1,8E0,1.3E1,-7.029906E-2,-2.812209E-1,4E0,2.100586E-1,4.9472045E-2,1.1650085E-2],"split_indices":[0,0,0,0,0,4,0,0,0],"split_type":[0,0,0,0,0,0,0,0,0],"sum_hessian":[7E0,3E0,4E0,2E0,1E0,3E0,1E0,2E0,1E0],"tree_param":{"num_deleted":"0","num_feature":"10","num_nodes":"9","size_leaf_vector":"1"}},{"base_weights":[-6.298089E-2,-5.389943E-1,3.3042604E-1,-5.6239225E-2,-2.3903777E-1,1.15449905E-1,1.7854959E-1,3.9578248E-2,9.902573E-3],"categories":[],"categories_nodes":[],"categories_segments":[],"categories_sizes":[],"default_left":[0,0,0,0,0,0,0,0,0],"id":18,"left_children":[1,3,5,-1,-1,7,-1,-1,-1],"loss_changes":[1.6762334E0,2.1312547E-1,2.158513E-1,0E0,0E0,1.0789968E-3,0E0,0E0,0E0],"parents":[2147483647,0,0,1,1,2,2,5,5],"right_children":[2,4,6,-1,-1,8,-1,-1,-1],"split_conditions":[1E1,8E0,1.3E1,-5.6239225E-2,-2.3903777E-1,4E0,1.7854959E-1,3.9578248E-2,9.902573E-3],"split_indices":[0,0,0,0,0,4,0,0,0],"split_type":[0,0,0,0,0,0,0,0,0],"sum_hessian":[7E0,3E0,4E0,2E0,1E0,3E0,1E0,2E0,1E0],"tree_param":{"num_deleted":"0","num_feature":"10","num_nodes":"9","size_leaf_vector":"1"}},{"base_weights":[-5.2493393E-2,-4.5111525E-1,2.7690277E-1,-4.4991396E-2,-2.0318206E-1,9.318352E-2,1.5176697E-1,3.902321E-2,1.1257934E-2],"categories":[],"categories_nodes":[],"categories_segments":[],"categories_sizes":[],"default_left":[0,0,0,0,0,0,0,0,0],"id":19,"left_children":[1,3,5,-1,-1,7,-1,-1,-1],"loss_changes":[1.1753511E0,1.7085314E-1,1.6320616E-1,0E0,0E0,3.3322684E-3,0E0,0E0,0E0],"parents":[2147483647,0,0,1,1,2,2,5,5],"right_children":[2,4,6,-1,-1,8,-1,-1,-1],"split_conditions":[1E1,8E0,1.3E1,-4.4991396E-2,-2.0318206E-1,1.2E1,1.5176697E-1,3.902321E-2,1.1257934E-2],"split_indices":[0,0,0,0,0,0,0,0,0],"split_type":[0,0,0,0,0,0,0,0,0],"sum_hessian":[7E0,3E0,4E0,2E0,1E0,3E0,1E0,1E0,2E0],"tree_param":{"num_deleted":"0","num_feature":"10","num_nodes":"9","size_leaf_vector":"1"}},{"base_weights":[-4.2511523E-2,-3.7782395E-1,2.3424073E-1,-3.59931E-2,-1.7270473E-1,7.7796936E-2,1.2900239E-1,3.3169556E-2,9.0057375E-3],"categories":[],"categories_nodes":[],"categories_segments":[],"categories_sizes":[],"default_left":[0,0,0,0,0,0,0,0,0],"id":20,"left_children":[1,3,5,-1,-1,7,-1,-1,-1],"loss_changes":[8.3088946E-1,1.3500017E-1,1.1967951E-1,0E0,0E0,2.943311E-3,0E0,0E0,0E0],"parents":[2147483647,0,0,1,1,2,2,5,5],"right_children":[2,4,6,-1,-1,8,-1,-1,-1],"split_conditions":[1E1,8E0,1.3E1,-3.59931E-2,-1.7270473E-1,1.2E1,1.2900239E-1,3.3169556E-2,9.0057375E-3],"split_indices":[0,0,0,0,0,0,0,0,0],"split_type":[0,0,0,0,0,0,0,0,0],"sum_hessian":[7E0,3E0,4E0,2E0,1E0,3E0,1E0,1E0,2E0],"tree_param":{"num_deleted":"0","num_feature":"10","num_nodes":"9","size_leaf_vector":"1"}},{"base_weights":[-3.4448087E-2,-3.1665123E-1,1.9820404E-1,-2.879448E-2,-1.4679903E-1,6.500244E-2,1.0965157E-1,2.8193666E-2,7.2052004E-3],"categories":[],"categories_nodes":[],"categories_segments":[],"categories_sizes":[],"default_left":[0,0,0,0,0,0,0,0,0],"id":21,"left_children":[1,3,5,-1,-1,7,-1,-1,-1],"loss_changes":[5.8800286E-1,1.0545322E-1,8.766517E-2,0E0,0E0,2.4932884E-3,0E0,0E0,0E0],"parents":[2147483647,0,0,1,1,2,2,5,5],"right_children":[2,4,6,-1,-1,8,-1,-1,-1],"split_conditions":[1E1,8E0,1.3E1,-2.879448E-2,-1.4679903E-1,1.2E1,1.0965157E-1,2.8193666E-2,7.2052004E-3],"split_indices":[0,0,0,0,0,0,0,0,0],"split_type":[0,0,0,0,0,0,0,0,0],"sum_hessian":[7E0,3E0,4E0,2E0,1E0,3E0,1E0,1E0,2E0],"tree_param":{"num_deleted":"0","num_feature":"10","num_nodes":"9","size_leaf_vector":"1"}},{"base_weights":[-2.79302E-2,-2.655543E-1,1.6775513E-1,-2.3035623E-2,-1.2477916E-1,5.4353714E-2,9.320412E-2,2.3965074E-2,5.764771E-3],"categories":[],"categories_nodes":[],"categories_segments":[],"categories_sizes":[],"default_left":[0,0,0,0,0,0,0,0,0],"id":22,"left_children":[1,3,5,-1,-1,7,-1,-1,-1],"loss_changes":[4.1654453E-1,8.160803E-2,6.4153E-2,0E0,0E0,2.053218E-3,0E0,0E0,0E0],"parents":[2147483647,0,0,1,1,2,2,5,5],"right_children":[2,4,6,-1,-1,8,-1,-1,-1],"split_conditions":[1E1,8E0,1.3E1,-2.3035623E-2,-1.2477916E-1,1.2E1,9.320412E-2,2.3965074E-2,5.764771E-3],"split_indices":[0,0,0,0,0,0,0,0,0],"split_type":[0,0,0,0,0,0,0,0,0],"sum_hessian":[7E0,3E0,4E0,2E0,1E0,3E0,1E0,1E0,2E0],"tree_param":{"num_deleted":"0","num_feature":"10","num_nodes":"9","size_leaf_vector":"1"}},{"base_weights":[-2.2661328E-2,-2.228415E-1,1.4201507E-1,-1.8428423E-2,-1.0606227E-1,4.547882E-2,7.922402E-2,2.0370483E-2,4.6112062E-3],"categories":[],"categories_nodes":[],"categories_segments":[],"categories_sizes":[],"default_left":[0,0,0,0,0,0,0,0,0],"id":23,"left_children":[1,3,5,-1,-1,7,-1,-1,-1],"loss_changes":[2.9536647E-1,6.266922E-2,4.6908423E-2,0E0,0E0,1.656739E-3,0E0,0E0,0E0],"parents":[2147483647,0,0,1,1,2,2,5,5],"right_children":[2,4,6,-1,-1,8,-1,-1,-1],"split_conditions":[1E1,8E0,1.3E1,-1.8428423E-2,-1.0606227E-1,1.2E1,7.922402E-2,2.0370483E-2,4.6112062E-3],"split_indices":[0,0,0,0,0,0,0,0,0],"split_type":[0,0,0,0,0,0,0,0,0],"sum_hessian":[7E0,3E0,4E0,2E0,1E0,3E0,1E0,1E0,2E0],"tree_param":{"num_deleted":"0","num_feature":"10","num_nodes":"9","size_leaf_vector":"1"}},{"base_weights":[-1.839763E-2,-1.871115E-1,1.2025299E-1,-4.91422E-2,-9.015291E-2,3.6895752E-3,1.8812306E-1,-4.2057037E-3,-1.7908288E-2,1.731491E-2,6.734047E-2],"categories":[],"categories_nodes":[],"categories_segments":[],"categories_sizes":[],"default_left":[0,0,0,0,0,0,0,0,0,0,0],"id":24,"left_children":[1,3,5,7,-1,-1,9,-1,-1,-1,-1],"loss_changes":[2.0963898E-1,4.781416E-2,3.432072E-2,2.7501397E-4,0E0,0E0,1.2634695E-3,0E0,0E0,0E0,0E0],"parents":[2147483647,0,0,1,1,2,2,3,3,6,6],"right_children":[2,4,6,8,-1,-1,10,-1,-1,-1,-1],"split_conditions":[1E1,8E0,2E0,3E0,-9.015291E-2,3.6895752E-3,1.2E1,-4.2057037E-3,-1.7908288E-2,1.731491E-2,6.734047E-2],"split_indices":[0,0,2,3,0,0,0,0,0,0,0],"split_type":[0,0,0,0,0,0,0,0,0,0,0],"sum_hessian":[7E0,3E0,4E0,2E0,1E0,2E0,2E0,1E0,1E0,1E0,1E0],"tree_param":{"num_deleted":"0","num_feature":"10","num_nodes":"11","size_leaf_vector":"1"}},{"base_weights":[-1.5869439E-2,-1.5904486E-1,1.0184479E-1,-4.1770935E-2,-7.663E-2,2.95105E-3,1.5990448E-1,-3.5748484E-3,-1.52220735E-2,1.4717103E-2,5.7239916E-2],"categories":[],"categories_nodes":[],"categories_segments":[],"categories_sizes":[],"default_left":[0,0,0,0,0,0,0,0,0,0,0],"id":25,"left_children":[1,3,5,7,-1,-1,9,-1,-1,-1,-1],"loss_changes":[1.5102817E-1,3.454572E-2,2.513681E-2,1.9870047E-4,0E0,0E0,9.13918E-4,0E0,0E0,0E0,0E0],"parents":[2147483647,0,0,1,1,2,2,3,3,6,6],"right_children":[2,4,6,8,-1,-1,10,-1,-1,-1,-1],"split_conditions":[1E1,8E0,2E0,3E0,-7.663E-2,2.95105E-3,1.2E1,-3.5748484E-3,-1.52220735E-2,1.4717103E-2,5.7239916E-2],"split_indices":[0,0,2,3,0,0,0,0,0,0,0],"split_type":[0,0,0,0,0,0,0,0,0,0,0],"sum_hessian":[7E0,3E0,4E0,2E0,1E0,2E0,2E0,1E0,1E0,1E0,1E0],"tree_param":{"num_deleted":"0","num_feature":"10","num_nodes":"11","size_leaf_vector":"1"}},{"base_weights":[-1.367414E-2,-1.3518786E-1,8.6271666E-2,-3.550498E-2,-6.513548E-2,2.3605349E-3,1.3591766E-1,-3.0385496E-3,-1.293869E-2,1.2509537E-2,4.8653413E-2],"categories":[],"categories_nodes":[],"categories_segments":[],"categories_sizes":[],"default_left":[0,0,0,0,0,0,0,0,0,0,0],"id":26,"left_children":[1,3,5,7,-1,-1,9,-1,-1,-1,-1],"loss_changes":[1.0882118E-1,2.495946E-2,1.839257E-2,1.4357851E-4,0E0,0E0,6.6012144E-4,0E0,0E0,0E0,0E0],"parents":[2147483647,0,0,1,1,2,2,3,3,6,6],"right_children":[2,4,6,8,-1,-1,10,-1,-1,-1,-1],"split_conditions":[1E1,8E0,2E0,3E0,-6.513548E-2,2.3605349E-3,1.2E1,-3.0385496E-3,-1.293869E-2,1.2509537E-2,4.8653413E-2],"split_indices":[0,0,2,3,0,0,0,0,0,0,0],"split_type":[0,0,0,0,0,0,0,0,0,0,0],"sum_hessian":[7E0,3E0,4E0,2E0,1E0,2E0,2E0,1E0,1E0,1E0,1E0],"tree_param":{"num_deleted":"0","num_feature":"10","num_nodes":"11","size_leaf_vector":"1"}},{"base_weights":[-1.177007E-2,-1.1490977E-1,7.30957E-2,-3.0179342E-2,-5.536516E-2,1.8890381E-3,1.1552938E-1,-2.5827885E-3,-1.0997916E-2,1.0632706E-2,4.1355517E-2],"categories":[],"categories_nodes":[],"categories_segments":[],"categories_sizes":[],"default_left":[0,0,0,0,0,0,0,0,0,0,0],"id":27,"left_children":[1,3,5,7,-1,-1,9,-1,-1,-1,-1],"loss_changes":[7.842366E-2,1.803315E-2,1.344515E-2,1.0373164E-4,0E0,0E0,4.7739968E-4,0E0,0E0,0E0,0E0],"parents":[2147483647,0,0,1,1,2,2,3,3,6,6],"right_children":[2,4,6,8,-1,-1,10,-1,-1,-1,-1],"split_conditions":[1E1,8E0,2E0,3E0,-5.536516E-2,1.8890381E-3,1.2E1,-2.5827885E-3,-1.0997916E-2,1.0632706E-2,4.1355517E-2],"split_indices":[0,0,2,3,0,0,0,0,0,0,0],"split_type":[0,0,0,0,0,0,0,0,0,0,0],"sum_hessian":[7E0,3E0,4E0,2E0,1E0,2E0,2E0,1E0,1E0,1E0,1E0],"tree_param":{"num_deleted":"0","num_feature":"10","num_nodes":"11","size_leaf_vector":"1"}},{"base_weights":[-1.0124207E-2,-9.7673416E-2,6.1940003E-2,-2.5652567E-2,-4.7060397E-2,1.5106202E-3,9.819794E-2,-2.195406E-3,-9.34825E-3,9.0374E-3,3.5151675E-2],"categories":[],"categories_nodes":[],"categories_segments":[],"categories_sizes":[],"default_left":[0,0,0,0,0,0,0,0,0,0,0],"id":28,"left_children":[1,3,5,7,-1,-1,9,-1,-1,-1,-1],"loss_changes":[5.6523208E-2,1.3028905E-2,9.82175E-3,7.4939104E-5,0E0,0E0,3.451556E-4,0E0,0E0,0E0,0E0],"parents":[2147483647,0,0,1,1,2,2,3,3,6,6],"right_children":[2,4,6,8,-1,-1,10,-1,-1,-1,-1],"split_conditions":[1E1,8E0,2E0,3E0,-4.7060397E-2,1.5106202E-3,1.2E1,-2.195406E-3,-9.34825E-3,9.0374E-3,3.5151675E-2],"split_indices":[0,0,2,3,0,0,0,0,0,0,0],"split_type":[0,0,0,0,0,0,0,0,0,0,0],"sum_hessian":[7E0,3E0,4E0,2E0,1E0,2E0,2E0,1E0,1E0,1E0,1E0],"tree_param":{"num_deleted":"0","num_feature":"10","num_nodes":"11","size_leaf_vector":"1"}},{"base_weights":[-8.700073E-3,-8.3022475E-2,5.2497864E-2,-2.180481E-2,-4.000132E-2,1.2084962E-3,8.346812E-2,-1.8661023E-3,-7.946063E-3,7.681275E-3,2.987938E-2],"categories":[],"categories_nodes":[],"categories_segments":[],"categories_sizes":[],"default_left":[0,0,0,0,0,0,0,0,0,0,0],"id":29,"left_children":[1,3,5,7,-1,-1,9,-1,-1,-1,-1],"loss_changes":[4.0745523E-2,9.413328E-3,7.1693333E-3,5.4145115E-5,0E0,0E0,2.4987012E-4,0E0,0E0,0E0,0E0],"parents":[2147483647,0,0,1,1,2,2,3,3,6,6],"right_children":[2,4,6,8,-1,-1,10,-1,-1,-1,-1],"split_conditions":[1E1,8E0,2E0,3E0,-4.000132E-2,1.2084962E-3,1.2E1,-1.8661023E-3,-7.946063E-3,7.681275E-3,2.987938E-2],"split_indices":[0,0,2,3,0,0,0,0,0,0,0],"split_type":[0,0,0,0,0,0,0,0,0,0,0],"sum_hessian":[7E0,3E0,4E0,2E0,1E0,2E0,2E0,1E0,1E0,1E0,1E0],"tree_param":{"num_deleted":"0","num_feature":"10","num_nodes":"11","size_leaf_vector":"1"}},{"base_weights":[-7.469654E-3,-7.056904E-2,4.4503786E-2,-1.8534025E-2,-3.4001112E-2,9.6740725E-4,7.094828E-2,-1.5861512E-3,-6.7541604E-3,6.528855E-3,2.5397874E-2],"categories":[],"categories_nodes":[],"categories_segments":[],"categories_sizes":[],"default_left":[0,0,0,0,0,0,0,0,0,0,0],"id":30,"left_children":[1,3,5,7,-1,-1,9,-1,-1,-1,-1],"loss_changes":[2.9376524E-2,6.8011433E-3,5.2292394E-3,3.912649E-5,0E0,0E0,1.8075388E-4,0E0,0E0,0E0,0E0],"parents":[2147483647,0,0,1,1,2,2,3,3,6,6],"right_children":[2,4,6,8,-1,-1,10,-1,-1,-1,-1],"split_conditions":[1E1,8E0,2E0,3E0,-3.4001112E-2,9.6740725E-4,1.2E1,-1.5861512E-3,-6.7541604E-3,6.528855E-3,2.5397874E-2],"split_indices":[0,0,2,3,0,0,0,0,0,0,0],"split_type":[0,0,0,0,0,0,0,0,0,0,0],"sum_hessian":[7E0,3E0,4E0,2E0,1E0,2E0,2E0,1E0,1E0,1E0,1E0],"tree_param":{"num_deleted":"0","num_feature":"10","num_nodes":"11","size_leaf_vector":"1"}},{"base_weights":[-6.4103603E-3,-5.998373E-2,3.7730407E-2,-1.5754065E-2,-2.890091E-2,7.736206E-4,6.030528E-2,-1.3482571E-3,-5.741072E-3,5.5492404E-3,2.1588136E-2],"categories":[],"categories_nodes":[],"categories_segments":[],"categories_sizes":[],"default_left":[0,0,0,0,0,0,0,0,0,0,0],"id":31,"left_children":[1,3,5,7,-1,-1,9,-1,-1,-1,-1],"loss_changes":[2.1181367E-2,4.9137715E-3,3.812211E-3,2.8266164E-5,0E0,0E0,1.3074558E-4,0E0,0E0,0E0,0E0],"parents":[2147483647,0,0,1,1,2,2,3,3,6,6],"right_children":[2,4,6,8,-1,-1,10,-1,-1,-1,-1],"split_conditions":[1E1,8E0,2E0,3E0,-2.890091E-2,7.736206E-4,1.2E1,-1.3482571E-3,-5.741072E-3,5.5492404E-3,2.1588136E-2],"split_indices":[0,0,2,3,0,0,0,0,0,0,0],"split_type":[0,0,0,0,0,0,0,0,0,0,0],"sum_hessian":[7E0,3E0,4E0,2E0,1E0,2E0,2E0,1E0,1E0,1E0,1E0],"tree_param":{"num_deleted":"0","num_feature":"10","num_nodes":"11","size_leaf_vector":"1"}},{"base_weights":[-5.4963827E-3,-5.098605E-2,3.199463E-2,-1.3390859E-2,-2.4565745E-2,6.195068E-4,5.1259357E-2,-1.1459828E-3,-4.879904E-3,4.717255E-3,1.8349458E-2],"categories":[],"categories_nodes":[],"categories_segments":[],"categories_sizes":[],"default_left":[0,0,0,0,0,0,0,0,0,0,0],"id":32,"left_children":[1,3,5,7,-1,-1,9,-1,-1,-1,-1],"loss_changes":[1.5274909E-2,3.5502082E-3,2.7770763E-3,2.042664E-5,0E0,0E0,9.421352E-5,0E0,0E0,0E0,0E0],"parents":[2147483647,0,0,1,1,2,2,3,3,6,6],"right_children":[2,4,6,8,-1,-1,10,-1,-1,-1,-1],"split_conditions":[1E1,8E0,2E0,3E0,-2.4565745E-2,6.195068E-4,1.2E1,-1.1459828E-3,-4.879904E-3,4.717255E-3,1.8349458E-2],"split_indices":[0,0,2,3,0,0,0,0,0,0,0],"split_type":[0,0,0,0,0,0,0,0,0,0,0],"sum_hessian":[7E0,3E0,4E0,2E0,1E0,2E0,2E0,1E0,1E0,1E0,1E0],"tree_param":{"num_deleted":"0","num_feature":"10","num_nodes":"11","size_leaf_vector":"1"}},{"base_weights":[-4.70984E-3,-4.333806E-2,2.7134705E-2,-1.1382103E-2,-2.0880891E-2,4.959107E-4,4.3571472E-2,-9.740353E-4,-4.1479114E-3,4.01001E-3,1.5597153E-2],"categories":[],"categories_nodes":[],"categories_segments":[],"categories_sizes":[],"default_left":[0,0,0,0,0,0,0,0,0,0,0],"id":33,"left_children":[1,3,5,7,-1,-1,9,-1,-1,-1,-1],"loss_changes":[1.1016751E-2,2.5650524E-3,2.0221558E-3,1.4763413E-5,0E0,0E0,6.794417E-5,0E0,0E0,0E0,0E0],"parents":[2147483647,0,0,1,1,2,2,3,3,6,6],"right_children":[2,4,6,8,-1,-1,10,-1,-1,-1,-1],"split_conditions":[1E1,8E0,2E0,3E0,-2.0880891E-2,4.959107E-4,1.2E1,-9.740353E-4,-4.1479114E-3,4.01001E-3,1.5597153E-2],"split_indices":[0,0,2,3,0,0,0,0,0,0,0],"split_type":[0,0,0,0,0,0,0,0,0,0,0],"sum_hessian":[7E0,3E0,4E0,2E0,1E0,2E0,2E0,1E0,1E0,1E0,1E0],"tree_param":{"num_deleted":"0","num_feature":"10","num_nodes":"11","size_leaf_vector":"1"}},{"base_weights":[-4.034519E-3,-3.6837578E-2,2.3014832E-2,-9.675026E-3,-1.7748786E-2,3.9672852E-4,3.7035625E-2,-8.2798005E-4,-3.5257817E-3,3.4080506E-3,1.3257981E-2],"categories":[],"categories_nodes":[],"categories_segments":[],"categories_sizes":[],"default_left":[0,0,0,0,0,0,0,0,0,0,0],"id":34,"left_children":[1,3,5,7,-1,-1,9,-1,-1,-1,-1],"loss_changes":[7.946223E-3,1.8532202E-3,1.4717465E-3,1.0663556E-5,0E0,0E0,4.9284194E-5,0E0,0E0,0E0,0E0],"parents":[2147483647,0,0,1,1,2,2,3,3,6,6],"right_children":[2,4,6,8,-1,-1,10,-1,-1,-1,-1],"split_conditions":[1E1,8E0,2E0,3E0,-1.7748786E-2,3.9672852E-4,1.2E1,-8.2798005E-4,-3.5257817E-3,3.4080506E-3,1.3257981E-2],"split_indices":[0,0,2,3,0,0,0,0,0,0,0],"split_type":[0,0,0,0,0,0,0,0,0,0,0],"sum_hessian":[7E0,3E0,4E0,2E0,1E0,2E0,2E0,1E0,1E0,1E0,1E0],"tree_param":{"num_deleted":"0","num_feature":"10","num_nodes":"11","size_leaf_vector":"1"}},{"base_weights":[-3.4546852E-3,-3.131199E-2,1.9522095E-2,-8.223851E-3,-1.5086461E-2,3.1738283E-4,3.147888E-2,-7.0381165E-4,-2.9969218E-3,2.8964998E-3,1.1268998E-2],"categories":[],"categories_nodes":[],"categories_segments":[],"categories_sizes":[],"default_left":[0,0,0,0,0,0,0,0,0,0,0],"id":35,"left_children":[1,3,5,7,-1,-1,9,-1,-1,-1,-1],"loss_changes":[5.731845E-3,1.3389387E-3,1.0705568E-3,7.702343E-6,0E0,0E0,3.5684556E-5,0E0,0E0,0E0,0E0],"parents":[2147483647,0,0,1,1,2,2,3,3,6,6],"right_children":[2,4,6,8,-1,-1,10,-1,-1,-1,-1],"split_conditions":[1E1,8E0,2E0,3E0,-1.5086461E-2,3.1738283E-4,1.2E1,-7.0381165E-4,-2.9969218E-3,2.8964998E-3,1.1268998E-2],"split_indices":[0,0,2,3,0,0,0,0,0,0,0],"split_type":[0,0,0,0,0,0,0,0,0,0,0],"sum_hessian":[7E0,3E0,4E0,2E0,1E0,2E0,2E0,1E0,1E0,1E0,1E0],"tree_param":{"num_deleted":"0","num_feature":"10","num_nodes":"11","size_leaf_vector":"1"}},{"base_weights":[-2.9572845E-3,-2.6615024E-2,1.6560365E-2,-6.9901147E-3,-1.2823463E-2,2.532959E-4,2.6756287E-2,-5.9823995E-4,-2.5473118E-3,2.4616243E-3,9.578705E-3],"categories":[],"categories_nodes":[],"categories_segments":[],"categories_sizes":[],"default_left":[0,0,0,0,0,0,0,0,0,0,0],"id":36,"left_children":[1,3,5,7,-1,-1,9,-1,-1,-1,-1],"loss_changes":[4.134702E-3,9.6739596E-4,7.78607E-4,5.563503E-6,0E0,0E0,2.5884947E-5,0E0,0E0,0E0,0E0],"parents":[2147483647,0,0,1,1,2,2,3,3,6,6],"right_children":[2,4,6,8,-1,-1,10,-1,-1,-1,-1],"split_conditions":[1E1,8E0,2E0,3E0,-1.2823463E-2,2.532959E-4,1.2E1,-5.9823995E-4,-2.5473118E-3,2.4616243E-3,9.578705E-3],"split_indices":[0,0,2,3,0,0,0,0,0,0,0],"split_type":[0,0,0,0,0,0,0,0,0,0,0],"sum_hessian":[7E0,3E0,4E0,2E0,1E0,2E0,2E0,1E0,1E0,1E0,1E0],"tree_param":{"num_deleted":"0","num_feature":"10","num_nodes":"11","size_leaf_vector":"1"}},{"base_weights":[-2.5299788E-3,-2.2622824E-2,1.4050293E-2,-5.941709E-3,-1.0899926E-2,2.029419E-4,2.2740683E-2,-5.0854683E-4,-2.1652223E-3,2.09198E-3,8.141328E-3],"categories":[],"categories_nodes":[],"categories_segments":[],"categories_sizes":[],"default_left":[0,0,0,0,0,0,0,0,0,0,0],"id":37,"left_children":[1,3,5,7,-1,-1,9,-1,-1,-1,-1],"loss_changes":[2.9830157E-3,6.989292E-4,5.6573504E-4,4.0173327E-6,0E0,0E0,1.8752762E-5,0E0,0E0,0E0,0E0],"parents":[2147483647,0,0,1,1,2,2,3,3,6,6],"right_children":[2,4,6,8,-1,-1,10,-1,-1,-1,-1],"split_conditions":[1E1,8E0,2E0,3E0,-1.0899926E-2,2.029419E-4,1.2E1,-5.0854683E-4,-2.1652223E-3,2.09198E-3,8.141328E-3],"split_indices":[0,0,2,3,0,0,0,0,0,0,0],"split_type":[0,0,0,0,0,0,0,0,0,0,0],"sum_hessian":[7E0,3E0,4E0,2E0,1E0,2E0,2E0,1E0,1E0,1E0,1E0],"tree_param":{"num_deleted":"0","num_feature":"10","num_nodes":"11","size_leaf_vector":"1"}},{"base_weights":[-2.1637082E-3,-9.264923E-3,6.350926E-3,-2.706909E-3,1.9330343E-2,-5.050659E-3,1.6174317E-4,1.7784119E-3,6.9202427E-3,-4.3230059E-4,-1.8404961E-3],"categories":[],"categories_nodes":[],"categories_segments":[],"categories_sizes":[],"default_left":[0,0,0,0,0,0,0,0,0,0,0],"id":38,"left_children":[1,-1,3,5,7,9,-1,-1,-1,-1,-1],"loss_changes":[2.1524152E-3,0E0,8.7528344E-4,4.076272E-5,1.3513607E-5,2.9016228E-6,0E0,0E0,0E0,0E0,0E0],"parents":[2147483647,0,0,2,2,3,3,4,4,5,5],"right_children":[2,-1,4,6,8,10,-1,-1,-1,-1,-1],"split_conditions":[1E0,-9.264923E-3,2E0,8E0,1.2E1,3E0,1.6174317E-4,1.7784119E-3,6.9202427E-3,-4.3230059E-4,-1.8404961E-3],"split_indices":[4,0,2,0,0,3,0,0,0,0,0],"split_type":[0,0,0,0,0,0,0,0,0,0,0],"sum_hessian":[7E0,1E0,6E0,4E0,2E0,2E0,2E0,1E0,1E0,1E0,1E0],"tree_param":{"num_deleted":"0","num_feature":"10","num_nodes":"11","size_leaf_vector":"1"}},{"base_weights":[-1.8487573E-3,-7.875181E-3,5.387306E-3,-2.316475E-3,1.6431173E-2,-4.2931237E-3,1.2969972E-4,1.5117646E-3,5.8822636E-3,-3.674984E-4,-1.5644074E-3],"categories":[],"categories_nodes":[],"categories_segments":[],"categories_sizes":[],"default_left":[0,0,0,0,0,0,0,0,0,0,0],"id":39,"left_children":[1,-1,3,5,7,9,-1,-1,-1,-1,-1],"loss_changes":[1.5540064E-3,0E0,6.336191E-4,2.9023191E-5,9.748619E-6,2.0944935E-6,0E0,0E0,0E0,0E0,0E0],"parents":[2147483647,0,0,2,2,3,3,4,4,5,5],"right_children":[2,-1,4,6,8,10,-1,-1,-1,-1,-1],"split_conditions":[1E0,-7.875181E-3,2E0,8E0,1.2E1,3E0,1.2969972E-4,1.5117646E-3,5.8822636E-3,-3.674984E-4,-1.5644074E-3],"split_indices":[4,0,2,0,0,3,0,0,0,0,0],"split_type":[0,0,0,0,0,0,0,0,0,0,0],"sum_hessian":[7E0,1E0,6E0,4E0,2E0,2E0,2E0,1E0,1E0,1E0,1E0],"tree_param":{"num_deleted":"0","num_feature":"10","num_nodes":"11","size_leaf_vector":"1"}},{"base_weights":[-1.5795231E-3,-6.6939355E-3,4.5700073E-3,-1.9821166E-3,1.3966878E-2,-3.6493938E-3,1.0375977E-4,1.2851716E-3,4.999924E-3,-3.124237E-4,-1.3298035E-3],"categories":[],"categories_nodes":[],"categories_segments":[],"categories_sizes":[],"default_left":[0,0,0,0,0,0,0,0,0,0,0],"id":40,"left_children":[1,-1,3,5,7,9,-1,-1,-1,-1,-1],"loss_changes":[1.121986E-3,0E0,4.586702E-4,2.0669158E-5,7.0211827E-6,1.5121295E-6,0E0,0E0,0E0,0E0,0E0],"parents":[2147483647,0,0,2,2,3,3,4,4,5,5],"right_children":[2,-1,4,6,8,10,-1,-1,-1,-1,-1],"split_conditions":[1E0,-6.6939355E-3,2E0,8E0,1.2E1,3E0,1.0375977E-4,1.2851716E-3,4.999924E-3,-3.124237E-4,-1.3298035E-3],"split_indices":[4,0,2,0,0,3,0,0,0,0,0],"split_type":[0,0,0,0,0,0,0,0,0,0,0],"sum_hessian":[7E0,1E0,6E0,4E0,2E0,2E0,2E0,1E0,1E0,1E0,1E0],"tree_param":{"num_deleted":"0","num_feature":"10","num_nodes":"11","size_leaf_vector":"1"}},{"base_weights":[-1.3490915E-3,-5.6898594E-3,3.8770947E-3,-1.6963959E-3,1.1873881E-2,-3.1019847E-3,8.239746E-5,1.0929108E-3,4.250336E-3,-2.6550295E-4,-1.1303902E-3],"categories":[],"categories_nodes":[],"categories_segments":[],"categories_sizes":[],"default_left":[0,0,0,0,0,0,0,0,0,0,0],"id":41,"left_children":[1,-1,3,5,7,9,-1,-1,-1,-1,-1],"loss_changes":[8.1009604E-4,0E0,3.3213285E-4,1.4704443E-5,5.028589E-6,1.0947133E-6,0E0,0E0,0E0,0E0,0E0],"parents":[2147483647,0,0,2,2,3,3,4,4,5,5],"right_children":[2,-1,4,6,8,10,-1,-1,-1,-1,-1],"split_conditions":[1E0,-5.6898594E-3,2E0,8E0,1.2E1,3E0,8.239746E-5,1.0929108E-3,4.250336E-3,-2.6550295E-4,-1.1303902E-3],"split_indices":[4,0,2,0,0,3,0,0,0,0,0],"split_type":[0,0,0,0,0,0,0,0,0,0,0],"sum_hessian":[7E0,1E0,6E0,4E0,2E0,2E0,2E0,1E0,1E0,1E0,1E0],"tree_param":{"num_deleted":"0","num_feature":"10","num_nodes":"11","size_leaf_vector":"1"}},{"base_weights":[-1.1520386E-3,-4.8364163E-3,3.2894951E-3,-1.4509201E-3,1.0093689E-2,-7.910729E-4,6.5612796E-5,9.292603E-4,3.6129E-3],"categories":[],"categories_nodes":[],"categories_segments":[],"categories_sizes":[],"default_left":[0,0,0,0,0,0,0,0,0],"id":42,"left_children":[1,-1,3,5,7,-1,-1,-1,-1],"loss_changes":[5.8492617E-4,0E0,2.4042805E-4,1.047753E-5,3.609428E-6,0E0,0E0,0E0,0E0],"parents":[2147483647,0,0,2,2,3,3,4,4],"right_children":[2,-1,4,6,8,-1,-1,-1,-1],"split_conditions":[1E0,-4.8364163E-3,2E0,8E0,1.2E1,-7.910729E-4,6.5612796E-5,9.292603E-4,3.6129E-3],"split_indices":[4,0,2,0,0,0,0,0,0],"split_type":[0,0,0,0,0,0,0,0,0],"sum_hessian":[7E0,1E0,6E0,4E0,2E0,2E0,2E0,1E0,1E0],"tree_param":{"num_deleted":"0","num_feature":"10","num_nodes":"9","size_leaf_vector":"1"}},{"base_weights":[-9.351373E-4,-4.1109324E-3,2.8464454E-3,-1.161766E-3,8.577983E-3,-2.1092098E-3,5.1879884E-5,7.896424E-4,3.07045E-3,-1.0700226E-4,-8.4214215E-4],"categories":[],"categories_nodes":[],"categories_segments":[],"categories_sizes":[],"default_left":[0,0,0,0,0,0,0,0,0,0,0],"id":43,"left_children":[1,-1,3,5,7,9,-1,-1,-1,-1,-1],"loss_changes":[4.2527023E-4,0E0,1.7077809E-4,6.687512E-6,2.6145863E-6,2.66821E-6,0E0,0E0,0E0,0E0,0E0],"parents":[2147483647,0,0,2,2,3,3,4,4,5,5],"right_children":[2,-1,4,6,8,10,-1,-1,-1,-1,-1],"split_conditions":[1E0,-4.1109324E-3,2E0,8E0,1.2E1,3E0,5.1879884E-5,7.896424E-4,3.07045E-3,-1.0700226E-4,-8.4214215E-4],"split_indices":[4,0,2,0,0,3,0,0,0,0,0],"split_type":[0,0,0,0,0,0,0,0,0,0,0],"sum_hessian":[7E0,1E0,6E0,4E0,2E0,2E0,2E0,1E0,1E0,1E0,1E0],"tree_param":{"num_deleted":"0","num_feature":"10","num_nodes":"11","size_leaf_vector":"1"}},{"base_weights":[-7.9858303E-4,-3.4943104E-3,2.4152484E-3,-9.933471E-4,7.291158E-3,-1.7929077E-3,4.119873E-5,6.706238E-4,2.6103975E-3,-9.098053E-5,-7.15828E-4],"categories":[],"categories_nodes":[],"categories_segments":[],"categories_sizes":[],"default_left":[0,0,0,0,0,0,0,0,0,0,0],"id":44,"left_children":[1,-1,3,5,7,9,-1,-1,-1,-1,-1],"loss_changes":[3.0707E-4,0E0,1.2358268E-4,4.766439E-6,1.937282E-6,1.9272702E-6,0E0,0E0,0E0,0E0,0E0],"parents":[2147483647,0,0,2,2,3,3,4,4,5,5],"right_children":[2,-1,4,6,8,10,-1,-1,-1,-1,-1],"split_conditions":[1E0,-3.4943104E-3,2E0,8E0,1.2E1,3E0,4.119873E-5,6.706238E-4,2.6103975E-3,-9.098053E-5,-7.15828E-4],"split_indices":[4,0,2,0,0,3,0,0,0,0,0],"split_type":[0,0,0,0,0,0,0,0,0,0,0],"sum_hessian":[7E0,1E0,6E0,4E0,2E0,2E0,2E0,1E0,1E0,1E0,1E0],"tree_param":{"num_deleted":"0","num_feature":"10","num_nodes":"11","size_leaf_vector":"1"}},{"base_weights":[-6.8056583E-4,-2.9701712E-3,2.0509448E-3,-8.472443E-4,6.1976113E-3,-1.5239716E-3,3.3569337E-5,5.699158E-4,2.2190094E-3,-7.739067E-5,-6.0839654E-4],"categories":[],"categories_nodes":[],"categories_segments":[],"categories_sizes":[],"default_left":[0,0,0,0,0,0,0,0,0,0,0],"id":45,"left_children":[1,-1,3,5,7,9,-1,-1,-1,-1,-1],"loss_changes":[2.2178184E-4,0E0,8.937566E-5,3.4159173E-6,1.4089819E-6,1.3911013E-6,0E0,0E0,0E0,0E0,0E0],"parents":[2147483647,0,0,2,2,3,3,4,4,5,5],"right_children":[2,-1,4,6,8,10,-1,-1,-1,-1,-1],"split_conditions":[1E0,-2.9701712E-3,2E0,8E0,1.2E1,3E0,3.3569337E-5,5.699158E-4,2.2190094E-3,-7.739067E-5,-6.0839654E-4],"split_indices":[4,0,2,0,0,3,0,0,0,0,0],"split_type":[0,0,0,0,0,0,0,0,0,0,0],"sum_hessian":[7E0,1E0,6E0,4E0,2E0,2E0,2E0,1E0,1E0,1E0,1E0],"tree_param":{"num_deleted":"0","num_feature":"10","num_nodes":"11","size_leaf_vector":"1"}},{"base_weights":[-5.802512E-4,-2.5246383E-3,1.7412731E-3,-7.2231295E-4,5.266825E-3,-1.2954077E-3,2.7465821E-5,4.840851E-4,1.8859864E-3,-6.580353E-5,-5.171299E-4],"categories":[],"categories_nodes":[],"categories_segments":[],"categories_sizes":[],"default_left":[0,0,0,0,0,0,0,0,0,0,0],"id":46,"left_children":[1,-1,3,5,7,9,-1,-1,-1,-1,-1],"loss_changes":[1.6017066E-4,0E0,6.4602806E-5,2.4507087E-6,1.0323783E-6,1.0047224E-6,0E0,0E0,0E0,0E0,0E0],"parents":[2147483647,0,0,2,2,3,3,4,4,5,5],"right_children":[2,-1,4,6,8,10,-1,-1,-1,-1,-1],"split_conditions":[1E0,-2.5246383E-3,2E0,8E0,1.2E1,3E0,2.7465821E-5,4.840851E-4,1.8859864E-3,-6.580353E-5,-5.171299E-4],"split_indices":[4,0,2,0,0,3,0,0,0,0,0],"split_type":[0,0,0,0,0,0,0,0,0,0,0],"sum_hessian":[7E0,1E0,6E0,4E0,2E0,2E0,2E0,1E0,1E0,1E0,1E0],"tree_param":{"num_deleted":"0","num_feature":"10","num_nodes":"11","size_leaf_vector":"1"}},{"base_weights":[-4.950762E-4,-2.1459104E-3,1.4779227E-3,-6.1798096E-4,1.3435364E-3,-3.3035278E-4,2.1362304E-5],"categories":[],"categories_nodes":[],"categories_segments":[],"categories_sizes":[],"default_left":[0,0,0,0,0,0,0],"id":47,"left_children":[1,-1,3,5,-1,-1,-1],"loss_changes":[1.1566078E-4,0E0,4.678938E-5,1.7434745E-6,0E0,0E0,0E0],"parents":[2147483647,0,0,2,2,3,3],"right_children":[2,-1,4,6,-1,-1,-1],"split_conditions":[1E0,-2.1459104E-3,2E0,8E0,1.3435364E-3,-3.3035278E-4,2.1362304E-5],"split_indices":[4,0,2,0,0,0,0],"split_type":[0,0,0,0,0,0,0],"sum_hessian":[7E0,1E0,6E0,4E0,2E0,2E0,2E0],"tree_param":{"num_deleted":"0","num_feature":"10","num_nodes":"7","size_leaf_vector":"1"}},{"base_weights":[-4.8577785E-4,-1.8240452E-3,1.1820112E-3,-1.7865498E-4,1.4019012E-3,-8.8119507E-4,1.1787415E-4,-6.437302E-6,-3.901005E-4],"categories":[],"categories_nodes":[],"categories_segments":[],"categories_sizes":[],"default_left":[0,0,0,0,0,0,0,0,0],"id":48,"left_children":[1,-1,3,5,-1,7,-1,-1,-1],"loss_changes":[8.182867E-5,0E0,3.4085388E-5,2.7555336E-6,0E0,1.0531485E-6,0E0,0E0,0E0],"parents":[2147483647,0,0,2,2,3,3,5,5],"right_children":[2,-1,4,6,-1,8,-1,-1,-1],"split_conditions":[1E0,-1.8240452E-3,1.3E1,8E0,1.4019012E-3,3E0,1.1787415E-4,-6.437302E-6,-3.901005E-4],"split_indices":[4,0,0,0,0,3,0,0,0],"split_type":[0,0,0,0,0,0,0,0,0],"sum_hessian":[7E0,1E0,6E0,5E0,1E0,2E0,3E0,1E0,1E0],"tree_param":{"num_deleted":"0","num_feature":"10","num_nodes":"9","size_leaf_vector":"1"}},{"base_weights":[-4.2659044E-4,-1.5504599E-3,9.890965E-4,-1.6975403E-4,1.19133E-3,1.4343263E-4,-1.8396378E-4],"categories":[],"categories_nodes":[],"categories_segments":[],"categories_sizes":[],"default_left":[0,0,0,0,0,0,0],"id":49,"left_children":[1,-1,3,5,-1,-1,-1],"loss_changes":[5.881292E-5,0E0,2.4863984E-5,2.016984E-6,0E0,0E0,0E0],"parents":[2147483647,0,0,2,2,3,3],"right_children":[2,-1,4,6,-1,-1,-1],"split_conditions":[1E0,-1.5504599E-3,1.3E1,2E0,1.19133E-3,1.4343263E-4,-1.8396378E-4],"split_indices":[4,0,0,7,0,0,0],"split_type":[0,0,0,0,0,0,0],"sum_hessian":[7E0,1E0,6E0,5E0,1E0,2E0,3E0],"tree_param":{"num_deleted":"0","num_feature":"10","num_nodes":"7","size_leaf_vector":"1"}},{"base_weights":[-3.48866E-4,-1.3178587E-3,8.5639954E-4,-1.262029E-4,1.0128021E-3,-1.8787385E-4,8.411408E-5],"categories":[],"categories_nodes":[],"categories_segments":[],"categories_sizes":[],"default_left":[0,0,0,0,0,0,0],"id":50,"left_children":[1,-1,3,5,-1,-1,-1],"loss_changes":[4.275476E-5,0E0,1.7756469E-5,1.395442E-6,0E0,0E0,0E0],"parents":[2147483647,0,0,2,2,3,3],"right_children":[2,-1,4,6,-1,-1,-1],"split_conditions":[1E0,-1.3178587E-3,1.3E1,8E0,1.0128021E-3,-1.8787385E-4,8.411408E-5],"split_indices":[4,0,0,0,0,0,0],"split_type":[0,0,0,0,0,0,0],"sum_hessian":[7E0,1E0,6E0,5E0,1E0,2E0,3E0],"tree_param":{"num_deleted":"0","num_feature":"10","num_nodes":"7","size_leaf_vector":"1"}},{"base_weights":[-2.9546022E-4,-1.1201621E-3,7.291521E-4,-1.05539955E-4,8.605957E-4,-1.0162354E-4,1.5907288E-4],"categories":[],"categories_nodes":[],"categories_segments":[],"categories_sizes":[],"default_left":[0,0,0,0,0,0,0],"id":51,"left_children":[1,-1,3,5,-1,-1,-1],"loss_changes":[3.0906886E-5,0E0,1.2803524E-5,1.0692244E-6,0E0,0E0,0E0],"parents":[2147483647,0,0,2,2,3,3],"right_children":[2,-1,4,6,-1,-1,-1],"split_conditions":[1E0,-1.1201621E-3,1.3E1,2E0,8.605957E-4,-1.0162354E-4,1.5907288E-4],"split_indices":[4,0,0,2,0,0,0],"split_type":[0,0,0,0,0,0,0],"sum_hessian":[7E0,1E0,6E0,5E0,1E0,4E0,1E0],"tree_param":{"num_deleted":"0","num_feature":"10","num_nodes":"7","size_leaf_vector":"1"}},{"base_weights":[-2.3293495E-4,-9.5214846E-4,6.4059667E-4,-1.9550325E-5,7.312775E-4],"categories":[],"categories_nodes":[],"categories_segments":[],"categories_sizes":[],"default_left":[0,0,0,0,0],"id":52,"left_children":[1,-1,3,-1,-1],"loss_changes":[2.2584849E-5,0E0,9.0366375E-6,0E0,0E0],"parents":[2147483647,0,0,2,2],"right_children":[2,-1,4,-1,-1],"split_conditions":[1E0,-9.5214846E-4,1.3E1,-1.9550325E-5,7.312775E-4],"split_indices":[4,0,0,0,0],"split_type":[0,0,0,0,0],"sum_hessian":[7E0,1E0,6E0,5E0,1E0],"tree_param":{"num_deleted":"0","num_feature":"10","num_nodes":"5","size_leaf_vector":"1"}},{"base_weights":[-1.9186735E-4,-8.093119E-4,5.514962E-4,-7.2326664E-5,5.065918E-4],"categories":[],"categories_nodes":[],"categories_segments":[],"categories_sizes":[],"default_left":[0,0,0,0,0],"id":53,"left_children":[1,-1,3,-1,-1],"loss_changes":[1.638977E-5,0E0,6.7160904E-6,0E0,0E0],"parents":[2147483647,0,0,2,2],"right_children":[2,-1,4,-1,-1],"split_conditions":[1E0,-8.093119E-4,2E0,-7.2326664E-5,5.065918E-4],"split_indices":[4,0,2,0,0],"split_type":[0,0,0,0,0],"sum_hessian":[7E0,1E0,6E0,4E0,2E0],"tree_param":{"num_deleted":"0","num_feature":"10","num_nodes":"5","size_leaf_vector":"1"}},{"base_weights":[-1.8131733E-4,-6.87933E-4,4.4795446E-4,-2.5177003E-5,5.458832E-4],"categories":[],"categories_nodes":[],"categories_segments":[],"categories_sizes":[],"default_left":[0,0,0,0,0],"id":54,"left_children":[1,-1,3,-1,-1],"loss_changes":[1.1658341E-5,0E0,5.259582E-6,0E0,0E0],"parents":[2147483647,0,0,2,2],"right_children":[2,-1,4,-1,-1],"split_conditions":[1E0,-6.87933E-4,1.3E1,-2.5177003E-5,5.458832E-4],"split_indices":[4,0,0,0,0],"split_type":[0,0,0,0,0],"sum_hessian":[7E0,1E0,6E0,5E0,1E0],"tree_param":{"num_deleted":"0","num_feature":"10","num_nodes":"5","size_leaf_vector":"1"}},{"base_weights":[-1.4919043E-4,-1.2406111E-3,7.537842E-4,8.325577E-5,-5.517483E-4,5.092621E-5,4.6348575E-4],"categories":[],"categories_nodes":[],"categories_segments":[],"categories_sizes":[],"default_left":[0,0,0,0,0,0,0],"id":55,"left_children":[1,3,5,-1,-1,-1,-1],"loss_changes":[8.819354E-6,4.1451094E-6,2.0480686E-6,0E0,0E0,0E0,0E0],"parents":[2147483647,0,0,1,1,2,2],"right_children":[2,4,6,-1,-1,-1,-1],"split_conditions":[1E1,3E0,1.3E1,8.325577E-5,-5.517483E-4,5.092621E-5,4.6348575E-4],"split_indices":[0,3,0,0,0,0,0],"split_type":[0,0,0,0,0,0,0],"sum_hessian":[7E0,3E0,4E0,1E0,2E0,3E0,1E0],"tree_param":{"num_deleted":"0","num_feature":"10","num_nodes":"7","size_leaf_vector":"1"}},{"base_weights":[-9.9778175E-5,-5.019665E-4,3.6403112E-4,-3.8146973E-6,3.9367678E-4],"categories":[],"categories_nodes":[],"categories_segments":[],"categories_sizes":[],"default_left":[0,0,0,0,0],"id":56,"left_children":[1,-1,3,-1,-1],"loss_changes":[6.447326E-6,0E0,2.5173706E-6,0E0,0E0],"parents":[2147483647,0,0,2,2],"right_children":[2,-1,4,-1,-1],"split_conditions":[1E0,-5.019665E-4,1.3E1,-3.8146973E-6,3.9367678E-4],"split_indices":[4,0,0,0,0],"split_type":[0,0,0,0,0],"sum_hessian":[7E0,1E0,6E0,5E0,1E0],"tree_param":{"num_deleted":"0","num_feature":"10","num_nodes":"5","size_leaf_vector":"1"}},{"base_weights":[-8.3744526E-5,-4.2665008E-4,3.1062536E-4,-2.670288E-6,3.341675E-4],"categories":[],"categories_nodes":[],"categories_segments":[],"categories_sizes":[],"default_left":[0,0,0,0,0],"id":57,"left_children":[1,-1,3,-1,-1],"loss_changes":[4.664428E-6,0E0,1.8065678E-6,0E0,0E0],"parents":[2147483647,0,0,2,2],"right_children":[2,-1,4,-1,-1],"split_conditions":[1E0,-4.2665008E-4,1.3E1,-2.670288E-6,3.341675E-4],"split_indices":[4,0,0,0,0],"split_type":[0,0,0,0,0],"sum_hessian":[7E0,1E0,6E0,5E0,1E0],"tree_param":{"num_deleted":"0","num_feature":"10","num_nodes":"5","size_leaf_vector":"1"}},{"base_weights":[-7.164478E-5,-7.4982643E-4,1.4556885E-4,7.181168E-5,-3.4780503E-4],"categories":[],"categories_nodes":[],"categories_segments":[],"categories_sizes":[],"default_left":[0,0,0,0,0],"id":58,"left_children":[1,3,-1,-1,-1],"loss_changes":[3.3851334E-6,1.8979174E-6,0E0,0E0,0E0],"parents":[2147483647,0,0,1,1],"right_children":[2,4,-1,-1,-1],"split_conditions":[1E1,3E0,1.4556885E-4,7.181168E-5,-3.4780503E-4],"split_indices":[0,3,0,0,0],"split_type":[0,0,0,0,0],"sum_hessian":[7E0,3E0,4E0,1E0,2E0],"tree_param":{"num_deleted":"0","num_feature":"10","num_nodes":"5","size_leaf_vector":"1"}},{"base_weights":[-6.610155E-5,-3.1049253E-4,2.2016253E-4,-1.0299683E-5,2.6206972E-4],"categories":[],"categories_nodes":[],"categories_segments":[],"categories_sizes":[],"default_left":[0,0,0,0,0],"id":59,"left_children":[1,-1,3,-1,-1],"loss_changes":[2.4466922E-6,0E0,1.1940054E-6,0E0,0E0],"parents":[2147483647,0,0,2,2],"right_children":[2,-1,4,-1,-1],"split_conditions":[1E0,-3.1049253E-4,1.3E1,-1.0299683E-5,2.6206972E-4],"split_indices":[4,0,0,0,0],"split_type":[0,0,0,0,0],"sum_hessian":[7E0,1E0,6E0,5E0,1E0],"tree_param":{"num_deleted":"0","num_feature":"10","num_nodes":"5","size_leaf_vector":"1"}},{"base_weights":[-5.4240227E-5,-1.0905266E-4,1.7471315E-4],"categories":[],"categories_nodes":[],"categories_segments":[],"categories_sizes":[],"default_left":[0,0,0],"id":60,"left_children":[1,-1,-1],"loss_changes":[1.7867854E-6,0E0,0E0],"parents":[2147483647,0,0],"right_children":[2,-1,-1],"split_conditions":[2E0,-1.0905266E-4,1.7471315E-4],"split_indices":[2,0,0],"split_type":[0,0,0],"sum_hessian":[7E0,5E0,2E0],"tree_param":{"num_deleted":"0","num_feature":"10","num_nodes":"3","size_leaf_vector":"1"}},{"base_weights":[-3.0577183E-5,-2.4755002E-4,6.024497E-5],"categories":[],"categories_nodes":[],"categories_segments":[],"categories_sizes":[],"default_left":[0,0,0],"id":61,"left_children":[1,-1,-1],"loss_changes":[1.6366115E-6,0E0,0E0],"parents":[2147483647,0,0],"right_children":[2,-1,-1],"split_conditions":[1E0,-2.4755002E-4,6.024497E-5],"split_indices":[4,0,0],"split_type":[0,0,0],"sum_hessian":[7E0,1E0,6E0],"tree_param":{"num_deleted":"0","num_feature":"10","num_nodes":"3","size_leaf_vector":"1"}},{"base_weights":[-4.518032E-5,-6.911414E-5,1.8768311E-4],"categories":[],"categories_nodes":[],"categories_segments":[],"categories_sizes":[],"default_left":[0,0,0],"id":62,"left_children":[1,-1,-1],"loss_changes":[1.1379726E-6,0E0,0E0],"parents":[2147483647,0,0],"right_children":[2,-1,-1],"split_conditions":[1.3E1,-6.911414E-5,1.8768311E-4],"split_indices":[0,0,0],"split_type":[0,0,0],"sum_hessian":[7E0,6E0,1E0],"tree_param":{"num_deleted":"0","num_feature":"10","num_nodes":"3","size_leaf_vector":"1"}},{"base_weights":[-1.7464161E-5,-2.0005704E-4,5.1171442E-5],"categories":[],"categories_nodes":[],"categories_segments":[],"categories_sizes":[],"default_left":[0,0,0],"id":63,"left_children":[1,-1,-1],"loss_changes":[1.0906183E-6,0E0,0E0],"parents":[2147483647,0,0],"right_children":[2,-1,-1],"split_conditions":[1E0,-2.0005704E-4,5.1171442E-5],"split_indices":[4,0,0],"split_type":[0,0,0],"sum_hessian":[7E0,1E0,6E0],"tree_param":{"num_deleted":"0","num_feature":"10","num_nodes":"3","size_leaf_vector":"1"}},{"base_weights":[-3.2007694E-5],"categories":[],"categories_nodes":[],"categories_segments":[],"categories_sizes":[],"default_left":[0],"id":64,"left_children":[-1],"loss_changes":[0E0],"parents":[2147483647],"right_children":[-1],"split_conditions":[-9.602309E-6],"split_indices":[0],"split_type":[0],"sum_hessian":[7E0],"tree_param":{"num_deleted":"0","num_feature":"10","num_nodes":"1","size_leaf_vector":"1"}},{"base_weights":[-2.4616718E-5],"categories":[],"categories_nodes":[],"categories_segments":[],"categories_sizes":[],"default_left":[0],"id":65,"left_children":[-1],"loss_changes":[0E0],"parents":[2147483647],"right_children":[-1],"split_conditions":[-7.3850156E-6],"split_indices":[0],"split_type":[0],"sum_hessian":[7E0],"tree_param":{"num_deleted":"0","num_feature":"10","num_nodes":"1","size_leaf_vector":"1"}},{"base_weights":[-1.8000603E-5],"categories":[],"categories_nodes":[],"categories_segments":[],"categories_sizes":[],"default_left":[0],"id":66,"left_children":[-1],"loss_changes":[0E0],"parents":[2147483647],"right_children":[-1],"split_conditions":[-5.400181E-6],"split_indices":[0],"split_type":[0],"sum_hessian":[7E0],"tree_param":{"num_deleted":"0","num_feature":"10","num_nodes":"1","size_leaf_vector":"1"}},{"base_weights":[-1.2099743E-5],"categories":[],"categories_nodes":[],"categories_segments":[],"categories_sizes":[],"default_left":[0],"id":67,"left_children":[-1],"loss_changes":[0E0],"parents":[2147483647],"right_children":[-1],"split_conditions":[-3.629923E-6],"split_indices":[0],"split_type":[0],"sum_hessian":[7E0],"tree_param":{"num_deleted":"0","num_feature":"10","num_nodes":"1","size_leaf_vector":"1"}},{"base_weights":[-1.0669231E-5],"categories":[],"categories_nodes":[],"categories_segments":[],"categories_sizes":[],"default_left":[0],"id":68,"left_children":[-1],"loss_changes":[0E0],"parents":[2147483647],"right_children":[-1],"split_conditions":[-3.2007695E-6],"split_indices":[0],"split_type":[0],"sum_hessian":[7E0],"tree_param":{"num_deleted":"0","num_feature":"10","num_nodes":"1","size_leaf_vector":"1"}},{"base_weights":[-9.536743E-6],"categories":[],"categories_nodes":[],"categories_segments":[],"categories_sizes":[],"default_left":[0],"id":69,"left_children":[-1],"loss_changes":[0E0],"parents":[2147483647],"right_children":[-1],"split_conditions":[-2.861023E-6],"split_indices":[0],"split_type":[0],"sum_hessian":[7E0],"tree_param":{"num_deleted":"0","num_feature":"10","num_nodes":"1","size_leaf_vector":"1"}},{"base_weights":[-8.46386E-6],"categories":[],"categories_nodes":[],"categories_segments":[],"categories_sizes":[],"default_left":[0],"id":70,"left_children":[-1],"loss_changes":[0E0],"parents":[2147483647],"right_children":[-1],"split_conditions":[-2.539158E-6],"split_indices":[0],"split_type":[0],"sum_hessian":[7E0],"tree_param":{"num_deleted":"0","num_feature":"10","num_nodes":"1","size_leaf_vector":"1"}},{"base_weights":[-7.4505806E-6],"categories":[],"categories_nodes":[],"categories_segments":[],"categories_sizes":[],"default_left":[0],"id":71,"left_children":[-1],"loss_changes":[0E0],"parents":[2147483647],"right_children":[-1],"split_conditions":[-2.2351742E-6],"split_indices":[0],"split_type":[0],"sum_hessian":[7E0],"tree_param":{"num_deleted":"0","num_feature":"10","num_nodes":"1","size_leaf_vector":"1"}},{"base_weights":[-6.67572E-6],"categories":[],"categories_nodes":[],"categories_segments":[],"categories_sizes":[],"default_left":[0],"id":72,"left_children":[-1],"loss_changes":[0E0],"parents":[2147483647],"right_children":[-1],"split_conditions":[-2.0027162E-6],"split_indices":[0],"split_type":[0],"sum_hessian":[7E0],"tree_param":{"num_deleted":"0","num_feature":"10","num_nodes":"1","size_leaf_vector":"1"}},{"base_weights":[-5.9604645E-6],"categories":[],"categories_nodes":[],"categories_segments":[],"categories_sizes":[],"default_left":[0],"id":73,"left_children":[-1],"loss_changes":[0E0],"parents":[2147483647],"right_children":[-1],"split_conditions":[-1.7881395E-6],"split_indices":[0],"split_type":[0],"sum_hessian":[7E0],"tree_param":{"num_deleted":"0","num_feature":"10","num_nodes":"1","size_leaf_vector":"1"}},{"base_weights":[-5.2452087E-6],"categories":[],"categories_nodes":[],"categories_segments":[],"categories_sizes":[],"default_left":[0],"id":74,"left_children":[-1],"loss_changes":[0E0],"parents":[2147483647],"right_children":[-1],"split_conditions":[-1.5735627E-6],"split_indices":[0],"split_type":[0],"sum_hessian":[7E0],"tree_param":{"num_deleted":"0","num_feature":"10","num_nodes":"1","size_leaf_vector":"1"}},{"base_weights":[-4.5895576E-6],"categories":[],"categories_nodes":[],"categories_segments":[],"categories_sizes":[],"default_left":[0],"id":75,"left_children":[-1],"loss_changes":[0E0],"parents":[2147483647],"right_children":[-1],"split_conditions":[-1.3768673E-6],"split_indices":[0],"split_type":[0],"sum_hessian":[7E0],"tree_param":{"num_deleted":"0","num_feature":"10","num_nodes":"1","size_leaf_vector":"1"}},{"base_weights":[-4.172325E-6],"categories":[],"categories_nodes":[],"categories_segments":[],"categories_sizes":[],"default_left":[0],"id":76,"left_children":[-1],"loss_changes":[0E0],"parents":[2147483647],"right_children":[-1],"split_conditions":[-1.2516975E-6],"split_indices":[0],"split_type":[0],"sum_hessian":[7E0],"tree_param":{"num_deleted":"0","num_feature":"10","num_nodes":"1","size_leaf_vector":"1"}},{"base_weights":[-3.7550926E-6],"categories":[],"categories_nodes":[],"categories_segments":[],"categories_sizes":[],"default_left":[0],"id":77,"left_children":[-1],"loss_changes":[0E0],"parents":[2147483647],"right_children":[-1],"split_conditions":[-1.1265279E-6],"split_indices":[0],"split_type":[0],"sum_hessian":[7E0],"tree_param":{"num_deleted":"0","num_feature":"10","num_nodes":"1","size_leaf_vector":"1"}},{"base_weights":[-3.3974648E-6],"categories":[],"categories_nodes":[],"categories_segments":[],"categories_sizes":[],"default_left":[0],"id":78,"left_children":[-1],"loss_changes":[0E0],"parents":[2147483647],"right_children":[-1],"split_conditions":[-1.0192394E-6],"split_indices":[0],"split_type":[0],"sum_hessian":[7E0],"tree_param":{"num_deleted":"0","num_feature":"10","num_nodes":"1","size_leaf_vector":"1"}},{"base_weights":[-3.0398369E-6],"categories":[],"categories_nodes":[],"categories_segments":[],"categories_sizes":[],"default_left":[0],"id":79,"left_children":[-1],"loss_changes":[0E0],"parents":[2147483647],"right_children":[-1],"split_conditions":[-9.119511E-7],"split_indices":[0],"split_type":[0],"sum_hessian":[7E0],"tree_param":{"num_deleted":"0","num_feature":"10","num_nodes":"1","size_leaf_vector":"1"}},{"base_weights":[-2.682209E-6],"categories":[],"categories_nodes":[],"categories_segments":[],"categories_sizes":[],"default_left":[0],"id":80,"left_children":[-1],"loss_changes":[0E0],"parents":[2147483647],"right_children":[-1],"split_conditions":[-8.0466276E-7],"split_indices":[0],"split_type":[0],"sum_hessian":[7E0],"tree_param":{"num_deleted":"0","num_feature":"10","num_nodes":"1","size_leaf_vector":"1"}},{"base_weights":[-2.3245811E-6],"categories":[],"categories_nodes":[],"categories_segments":[],"categories_sizes":[],"default_left":[0],"id":81,"left_children":[-1],"loss_changes":[0E0],"parents":[2147483647],"right_children":[-1],"split_conditions":[-6.973744E-7],"split_indices":[0],"split_type":[0],"sum_hessian":[7E0],"tree_param":{"num_deleted":"0","num_feature":"10","num_nodes":"1","size_leaf_vector":"1"}},{"base_weights":[-2.026558E-6],"categories":[],"categories_nodes":[],"categories_segments":[],"categories_sizes":[],"default_left":[0],"id":82,"left_children":[-1],"loss_changes":[0E0],"parents":[2147483647],"right_children":[-1],"split_conditions":[-6.079674E-7],"split_indices":[0],"split_type":[0],"sum_hessian":[7E0],"tree_param":{"num_deleted":"0","num_feature":"10","num_nodes":"1","size_leaf_vector":"1"}},{"base_weights":[-1.7285347E-6],"categories":[],"categories_nodes":[],"categories_segments":[],"categories_sizes":[],"default_left":[0],"id":83,"left_children":[-1],"loss_changes":[0E0],"parents":[2147483647],"right_children":[-1],"split_conditions":[-5.1856046E-7],"split_indices":[0],"split_type":[0],"sum_hessian":[7E0],"tree_param":{"num_deleted":"0","num_feature":"10","num_nodes":"1","size_leaf_vector":"1"}},{"base_weights":[-1.4305115E-6],"categories":[],"categories_nodes":[],"categories_segments":[],"categories_sizes":[],"default_left":[0],"id":84,"left_children":[-1],"loss_changes":[0E0],"parents":[2147483647],"right_children":[-1],"split_conditions":[-4.2915346E-7],"split_indices":[0],"split_type":[0],"sum_hessian":[7E0],"tree_param":{"num_deleted":"0","num_feature":"10","num_nodes":"1","size_leaf_vector":"1"}},{"base_weights":[-1.3709068E-6],"categories":[],"categories_nodes":[],"categories_segments":[],"categories_sizes":[],"default_left":[0],"id":85,"left_children":[-1],"loss_changes":[0E0],"parents":[2147483647],"right_children":[-1],"split_conditions":[-4.1127205E-7],"split_indices":[0],"split_type":[0],"sum_hessian":[7E0],"tree_param":{"num_deleted":"0","num_feature":"10","num_nodes":"1","size_leaf_vector":"1"}},{"base_weights":[-1.3113022E-6],"categories":[],"categories_nodes":[],"categories_segments":[],"categories_sizes":[],"default_left":[0],"id":86,"left_children":[-1],"loss_changes":[0E0],"parents":[2147483647],"right_children":[-1],"split_conditions":[-3.9339068E-7],"split_indices":[0],"split_type":[0],"sum_hessian":[7E0],"tree_param":{"num_deleted":"0","num_feature":"10","num_nodes":"1","size_leaf_vector":"1"}},{"base_weights":[-1.2516975E-6],"categories":[],"categories_nodes":[],"categories_segments":[],"categories_sizes":[],"default_left":[0],"id":87,"left_children":[-1],"loss_changes":[0E0],"parents":[2147483647],"right_children":[-1],"split_conditions":[-3.7550927E-7],"split_indices":[0],"split_type":[0],"sum_hessian":[7E0],"tree_param":{"num_deleted":"0","num_feature":"10","num_nodes":"1","size_leaf_vector":"1"}},{"base_weights":[-1.1920929E-6],"categories":[],"categories_nodes":[],"categories_segments":[],"categories_sizes":[],"default_left":[0],"id":88,"left_children":[-1],"loss_changes":[0E0],"parents":[2147483647],"right_children":[-1],"split_conditions":[-3.5762787E-7],"split_indices":[0],"split_type":[0],"sum_hessian":[7E0],"tree_param":{"num_deleted":"0","num_feature":"10","num_nodes":"1","size_leaf_vector":"1"}},{"base_weights":[-1.1324883E-6],"categories":[],"categories_nodes":[],"categories_segments":[],"categories_sizes":[],"default_left":[0],"id":89,"left_children":[-1],"loss_changes":[0E0],"parents":[2147483647],"right_children":[-1],"split_conditions":[-3.397465E-7],"split_indices":[0],"split_type":[0],"sum_hessian":[7E0],"tree_param":{"num_deleted":"0","num_feature":"10","num_nodes":"1","size_leaf_vector":"1"}},{"base_weights":[-1.0728836E-6],"categories":[],"categories_nodes":[],"categories_segments":[],"categories_sizes":[],"default_left":[0],"id":90,"left_children":[-1],"loss_changes":[0E0],"parents":[2147483647],"right_children":[-1],"split_conditions":[-3.218651E-7],"split_indices":[0],"split_type":[0],"sum_hessian":[7E0],"tree_param":{"num_deleted":"0","num_feature":"10","num_nodes":"1","size_leaf_vector":"1"}},{"base_weights":[-1.013279E-6],"categories":[],"categories_nodes":[],"categories_segments":[],"categories_sizes":[],"default_left":[0],"id":91,"left_children":[-1],"loss_changes":[0E0],"parents":[2147483647],"right_children":[-1],"split_conditions":[-3.039837E-7],"split_indices":[0],"split_type":[0],"sum_hessian":[7E0],"tree_param":{"num_deleted":"0","num_feature":"10","num_nodes":"1","size_leaf_vector":"1"}},{"base_weights":[-9.536743E-7],"categories":[],"categories_nodes":[],"categories_segments":[],"categories_sizes":[],"default_left":[0],"id":92,"left_children":[-1],"loss_changes":[0E0],"parents":[2147483647],"right_children":[-1],"split_conditions":[-2.861023E-7],"split_indices":[0],"split_type":[0],"sum_hessian":[7E0],"tree_param":{"num_deleted":"0","num_feature":"10","num_nodes":"1","size_leaf_vector":"1"}},{"base_weights":[-8.940697E-7],"categories":[],"categories_nodes":[],"categories_segments":[],"categories_sizes":[],"default_left":[0],"id":93,"left_children":[-1],"loss_changes":[0E0],"parents":[2147483647],"right_children":[-1],"split_conditions":[-2.682209E-7],"split_indices":[0],"split_type":[0],"sum_hessian":[7E0],"tree_param":{"num_deleted":"0","num_feature":"10","num_nodes":"1","size_leaf_vector":"1"}},{"base_weights":[-8.34465E-7],"categories":[],"categories_nodes":[],"categories_segments":[],"categories_sizes":[],"default_left":[0],"id":94,"left_children":[-1],"loss_changes":[0E0],"parents":[2147483647],"right_children":[-1],"split_conditions":[-2.5033953E-7],"split_indices":[0],"split_type":[0],"sum_hessian":[7E0],"tree_param":{"num_deleted":"0","num_feature":"10","num_nodes":"1","size_leaf_vector":"1"}},{"base_weights":[-7.748604E-7],"categories":[],"categories_nodes":[],"categories_segments":[],"categories_sizes":[],"default_left":[0],"id":95,"left_children":[-1],"loss_changes":[0E0],"parents":[2147483647],"right_children":[-1],"split_conditions":[-2.3245812E-7],"split_indices":[0],"split_type":[0],"sum_hessian":[7E0],"tree_param":{"num_deleted":"0","num_feature":"10","num_nodes":"1","size_leaf_vector":"1"}},{"base_weights":[-7.748604E-7],"categories":[],"categories_nodes":[],"categories_segments":[],"categories_sizes":[],"default_left":[0],"id":96,"left_children":[-1],"loss_changes":[0E0],"parents":[2147483647],"right_children":[-1],"split_conditions":[-2.3245812E-7],"split_indices":[0],"split_type":[0],"sum_hessian":[7E0],"tree_param":{"num_deleted":"0","num_feature":"10","num_nodes":"1","size_leaf_vector":"1"}},{"base_weights":[-7.748604E-7],"categories":[],"categories_nodes":[],"categories_segments":[],"categories_sizes":[],"default_left":[0],"id":97,"left_children":[-1],"loss_changes":[0E0],"parents":[2147483647],"right_children":[-1],"split_conditions":[-2.3245812E-7],"split_indices":[0],"split_type":[0],"sum_hessian":[7E0],"tree_param":{"num_deleted":"0","num_feature":"10","num_nodes":"1","size_leaf_vector":"1"}},{"base_weights":[-7.748604E-7],"categories":[],"categories_nodes":[],"categories_segments":[],"categories_sizes":[],"default_left":[0],"id":98,"left_children":[-1],"loss_changes":[0E0],"parents":[2147483647],"right_children":[-1],"split_conditions":[-2.3245812E-7],"split_indices":[0],"split_type":[0],"sum_hessian":[7E0],"tree_param":{"num_deleted":"0","num_feature":"10","num_nodes":"1","size_leaf_vector":"1"}},{"base_weights":[-7.748604E-7],"categories":[],"categories_nodes":[],"categories_segments":[],"categories_sizes":[],"default_left":[0],"id":99,"left_children":[-1],"loss_changes":[0E0],"parents":[2147483647],"right_children":[-1],"split_conditions":[-2.3245812E-7],"split_indices":[0],"split_type":[0],"sum_hessian":[7E0],"tree_param":{"num_deleted":"0","num_feature":"10","num_nodes":"1","size_leaf_vector":"1"}}]},"name":"gbtree"},"learner_model_param":{"base_score":"5.0714287E1","boost_from_average":"1","num_class":"0","num_feature":"10","num_target":"1"},"objective":{"name":"reg:squarederror","reg_loss_param":{"scale_pos_weight":"1"}}},"version":[2,0,3]}